[[204.8083835347517, 38.4688934186583, -34.64080543848373, 8.609499673426305, 89.10290673204392, 42.84547530636531, 300.08954929146796, -185.27724072019427, 475.9476264629471, 8.577361963491402, 470.098223565238, 130.24185712995563, 255.38418010788965, -41.57704296283451, 140.33341676605212, -308.939253891693, -40.926097663832984, 41.70564042458613, 27.516273020247493, 282.9821492550563, -1652.125386053072, 182.56279723299875, 122.07075967916646, -55.66048013295987, -166.27859087667443, 100.53027218091863, -78.32470447594632, -23.65662402594524, -3.590501135928166, -6.341462712138387, 102.44771954080443, 60.01331632702299, 66.51341955368795, -630.0400547925489, 69.48945424581323, 87.95454289059685, -85.68464509539686, -178.8618231610821, 50.9823735580696, -71.21158015663795, -114.63870695710676, 0.9696360493557541, -953.0884084307297, 1109.2250741784856, 67.74313461267383, -37.260346965842324, -262.75629311608384, -792.2886428012652, 137.1010162557589, 28.369523841617752]]
[[101.45412773523856, -101.45412773523873]]
[[23.951890703265196, 51.927179525463245, -141.6445618799344, 131.81576774254071, -94.3565055791133, -221.44927979497498, -59.96903623977607, 173.98852878463228, 0.07695169343185082, 4.716750911886167, -23.822618762408112, -62.700060355030054, -2.8726747648265434, -177.18353298932584, 8.164332052693704, 158.70538190920402, -159.00672705458564, -7.29029304765115, 113.27879610589721, 153.3968004595795, 30.153069787283943, -140.576130703074, -136.84434549350564, -30.63666620744379, -9.809946614324968, -225.91260133527805, -83.6540313184134, 93.83269138577616, 12.608206051830775, 36.437853881247946, -7.372530816022892, 417.93616407132504, 52.83690745113421, -122.94910619913101, 147.38612970282034, -181.95622468158945, -32.443024292072295, 41.39112934930215, 390.45807628841095, -83.0076327799214, -3.276605695042627, 80.68700193264449, -46.35537540596918, -168.29144553423663, 50.319827173978396, -52.54169147254591, 273.3398675411812, 30.674422819254097, -49.484223012393095, 391.43947028281696], [-131.07760559408644, -86.94294826875192, -56.96109605724868, 180.58538552074756, -147.26625888536526, -154.53212787218172, -40.48736033600508, 96.37187274124685, 28.816392267666608, 1.3229268868043178, 106.44587160170003, -5.456667955168927, -223.19620666356974, 10.119498536099458, 109.50073194756548, -249.5571900488503, 123.10558006424229, 260.49465796620274, -97.1796846078522, -118.54349590685902, -369.0791694569737, -110.7047629586632, -203.3592664104679, 70.1846361696622, 6.6835519647244, 43.024413354785516, -62.370678760564005, 65.72592661953622, -9.753909779472481, -150.28945878755675, 150.33693637404835, -41.09941388976832, -21.45828954924672, 72.89395849323908, 1.8040262935524436, -53.868089059449765, 157.65972070973896, 47.278420038282256, -82.37558635028502, -87.88391571346062, 5.343679802069618, 127.841048841423, -42.511951790842396, 148.50337636309303, 28.54087470858686, 291.52780524168554, -11.420711495984154, -139.03124110498908, -146.9473881768173, 29.553337878392632], [-46.10321288612409, 170.1715158160575, 123.3011082800469, -158.8995671844021, -26.34205481396132, 82.55282452638345, -12.827818844940374, 204.1150965785461, -19.896519825664804, 0.9978857929692778, 82.03672385221648, 85.04706862260183, -15.236916429085817, -206.8064169311029, 163.12959576232288, -4.366654171970818, -216.46025826660932, 205.14464723163073, 170.11446212896607, -54.7351586416322, -249.60576955305183, 78.01848230193724, 32.947392605138795, -197.5120640996647, -3.5106466821172138, -89.07621551866704, -49.97729128479391, 215.92982272777655, -8.887066735620335, 6.735619223767215, 123.38480275995296, 68.47425647688489, 98.14865672976428, -72.0482583681939, 164.67079867222571, 216.32134390150915, 115.63669863635211, -125.81526637630462, -110.71977366865853, 152.28276546435393, -0.5774607690957545, -156.8421180212328, -68.41349077370417, 63.720170172324345, 20.65875100229764, -89.02630831527155, -37.93967315780684, -103.73014078807262, -72.12393037001601, -191.63790056412435], [-186.38286433663276, -14.720989373153268, -57.87004976633407, 26.923909751716078, -101.91360070187145, 57.019778757537246, -184.69313293005746, -5.001229419718083, 72.26612355801585, 1.126223516420242, 8.846270378094962, -277.5982725336724, 25.876641465109284, 114.2968218313565, 21.904449331454877, 76.86626593285193, 80.61391292139419, -90.81582349197359, 14.375432108892673, 15.278425795030081, -314.0024873214106, 239.83037152832023, 135.51782355796226, -81.74219901336384, 10.419748175900917, 29.464660305758265, 187.38605941350156, -36.3652224301013, -2.9683702353077352, -30.049456176959506, 176.2910802659825, 141.38332012014092, -198.48314040074547, -136.54004666489996, -73.75084650000127, 18.525682875268984, -179.17399754833593, 82.54659649874915, 46.6241149257637, 100.38369062361006, 5.688644075041939, -57.505138947672776, -57.881694030321654, 331.9317256890552, 32.188248312609446, 170.86482004794385, -82.13273433036201, -50.96598648327698, 75.78552791649624, 115.25201545180614], [5.4647926578242565, -18.196009798822953, -47.082576601894495, 166.61523781844775, 60.01177776062828, -48.347251596558515, -275.76897650082003, -88.34186362230751, -337.2468839448041, 7.10118930124278, 225.85555336518416, 8.13678316767589, -63.324076350814394, 17.5020228689917, 89.35906181679137, -161.75316912524755, 45.273906436829904, -132.89678269179856, 186.53361992272696, 3.977342532064961, -976.7295630087579, 262.80794612388127, 13.197890857460184, 1.9399703412774834, 20.147573330343143, 71.32389367056265, 143.59709286756697, -71.63432642816852, 197.05089455626228, 41.363955611061236, 132.99053928474987, 35.4235660915301, -61.400421219288994, -592.4481743176651, 13.332924284531808, 143.38607390088882, 187.87691800489068, 47.01209404247156, -54.60302331709574, 39.79926499411856, 0.9262450532755819, 21.64234260297876, -304.1994854877904, 874.5810917621722, 23.554773296862308, -154.41528262527132, -130.54648632778034, -458.8921859776331, 26.041632112037338, -113.54902609882552], [248.265994009746, -27.716781683095036, -192.41897037673175, 145.57087656788894, 39.45247161233414, 45.188424045548274, 145.12041213091413, -198.09643105416703, -68.69149330061506, -216.4381791150715, 219.09854600381408, 78.40547728615381, 221.58623660770036, -7.482668836924357, 68.005417580334, 93.48288486152269, 87.21259422443953, 54.84551350743458, -49.822395136693046, 50.629135045973285, -61.2601482335484, 258.44839782891756, 27.347211079097487, -48.436853263801794, -1.8507108489638462, 52.98400440278425, -174.67895853748442, 79.61657512851255, -115.35257140283113, 55.87294642996846, -193.55852229446933, 57.95016730922888, 143.53805503955226, -95.03813301104552, 15.226107670596026, 111.95776927050228, 169.7026566244921, 57.790505984251396, -446.15829665568543, -78.30297992781409, -199.56860130482886, 73.91816347422387, 157.62645810179748, 255.8343830185214, -418.74349102154423, 25.129581785199832, 251.43239073332876, -102.84215995108116, -84.9368488084713, -293.6123521526404], [-48.786647515297346, 62.147450444568356, -12.189071337549686, -29.27534286578767, 27.95765839012153, -10.342915805066212, -55.89575688507434, 82.02517019289218, -22.847310755869046, 0.8434319469770964, 127.56703953382069, -63.09803675266404, -245.18703194240143, 66.07545295714553, 110.23084421815592, 30.330205617992597, -99.23327073228182, 35.00330979497344, -225.5313149053233, -22.951036572370562, -233.64950028819186, 24.17521906094726, -32.31161046292225, 109.22669587615309, 334.36036031243196, 66.83062813357314, 129.1538392596197, 155.8412648264083, 214.47642397813286, -345.39104088507594, -66.35169040083277, 34.277105007394844, 94.70723772458352, 123.48728153930554, 28.113920247135507, -99.69293841614525, 8.304823385719773, -236.29387312767489, -219.46737752380676, -171.9583150354522, 15.861419048348903, 147.27968428574812, -223.04903186247776, 493.2955587888072, -0.5539237708597028, 79.95768643342676, 14.463638214768256, -226.33769042444345, 248.32421508689114, -107.7489258087399], [8.57155313743385, -10.00971419860837, 73.83486975120492, 146.9892346759025, -30.393778635061473, -88.61590998746544, -20.343018477658276, -14.524069342621988, 273.05592383901933, -3.0212311107575673, -574.6661717465698, -53.89606683862704, -24.421677623790153, -12.882283865809576, 147.5538083892515, -306.1871786966433, 17.136454975767695, 80.37707045246452, 15.769743316708194, 261.3658915294624, 609.5689035112687, 55.10623548851634, 59.258786140824675, 29.253829333332863, -10.357156180381526, 13.741648823779363, -12.3826278887734, -36.924695378775986, 88.56942667421457, -21.733001413745644, 110.11699332176943, 10.214725190250476, -17.25427363490897, -120.60352430635301, -69.22714072739491, 68.43885861715313, -37.275012348407245, -195.73984260896438, 172.76248063738547, -87.95335040258142, -82.82095717080875, -40.099654181300615, 690.7183273015117, 14.24159186858111, 75.7999521101172, -84.03430374335932, -240.22630564267286, 564.3610303631997, 41.25647411308928, 59.66932727220074], [128.87403707067423, -88.0853770484358, -7.384055365284838, 7.12509202948868, -125.29534063639622, -16.688420557923386, -55.94486666500793, 2.2722083249269427, -3.8564857815924225, -2.6436334488866047, 107.63884053781798, -118.733602895142, -10.940622636807266, -61.07751605216556, -138.33872702931083, 44.506273043579355, 128.19532253151257, -31.346343539075846, 111.98437821646114, 25.979888877336723, -302.55707078944897, 19.165092586990674, 139.29880658739873, 97.21749930652346, 4.212075974551123, 123.45853004112304, -6.342169994053652, -146.99239068329646, 116.92848105502767, 11.62712234900433, 51.717671002059504, -16.41278046647372, -54.70371700448606, -107.24237838642318, -88.0749258536495, 85.82583074907585, -141.47811922385213, -22.641360219935663, 14.61304865902135, 44.758063566643784, -14.942417438725846, 83.45718299838958, -87.5267275838271, 48.9394969350285, -8.644774675803593, 34.26181920302909, 8.709470801177545, -104.11003373243615, -97.29870030488621, -79.38701769854464], [-53.93423137551881, -9.788868807437307, 23.200411128267497, 15.991348279964525, 47.54554018464154, 102.5430052435006, -123.23859130659183, 42.01700613686949, -132.2094657390115, 4.0885946265163255, 539.7721194350152, 44.415823754975136, -114.5295472075449, -14.264567605214175, -169.19448886282825, 203.40333612846123, 73.31843608303625, 35.93617502617486, -55.5693032262791, -143.54775250108867, -721.6538871825552, -39.116840861516394, -78.22410014110187, 2.0246697667553426, 2.9208326858145495, -22.862334522440506, -0.4818614670365058, 99.57244863450937, -100.89345359296732, -23.46605855062193, -158.60430408157336, -148.45985844406042, 114.12251996469509, 81.9057396300206, -107.15560043662677, 76.50611864462714, 271.2608287545448, 101.96518226799866, -174.00881011509654, 95.93816807380793, 44.068718904766364, -45.059127047808325, -543.313622678567, 202.42768625470848, 5.487490115929247, -58.47774351934155, 134.94393914837173, -591.3634192867445, -128.16454801789612, -186.11898206294345], [-85.54745892092701, -20.908327130217582, -63.57885018777195, 237.6164268219618, -113.97378689752448, -132.96604316778428, -462.06363814576514, -15.953811107454683, -534.6889930960506, 178.88167248027628, 275.2556609399382, -5.843726019261858, 87.95919070589797, -92.317380212299, 105.42647494456492, 174.1193690542594, 14.397567353097216, -143.91298990198675, 145.42479656421628, -180.05556641147734, -1026.0355542126786, 102.5121735335752, -85.91968845306704, -107.79716959199816, 122.17691209979652, -140.5911302217589, 166.51767567305603, 36.447087771783124, 78.28266799211266, 214.35087571110873, -113.6370708947674, 112.6069535910883, -117.73925945967461, -126.1242166767215, 64.91042335850399, 69.59347657350757, 118.19048217653437, 114.8122751426143, -87.51502975351859, 48.77342017779233, -411.82903411825976, -63.82746569638735, -21.584725874743498, 169.5645903038954, 180.64297663777793, -120.31788595950968, 116.20368987856884, -78.60304655996201, -150.82943314272066, -79.28340503621617], [-100.48565585186454, 92.96378678441121, -29.430842418330457, 143.96507830564056, -60.20467380502816, 6.044986479800631, -77.4179370219328, -141.42051852568574, -34.3736396213681, -155.16071193110398, 275.59258035914826, -46.593678837368884, 148.77752274537622, -62.6611576269462, -160.2959059714171, 79.9136602589962, 18.980148398144813, -105.79111043321544, -57.07563962559526, -16.77034436325226, -1045.3484038851755, 89.39095905965065, 55.32112965737587, -92.8293246514422, 144.80362152333672, -58.964096912610664, -55.29290356904053, 106.59803962558162, -15.844458245779393, 207.43074069529328, -93.12545625687845, 17.716507271050833, 33.509423674943385, -69.36175359520882, -145.30581680662775, 11.943559316229875, 72.88930933431331, 56.318445410237366, -80.01897657391702, -134.14022713026054, -13.710196922492834, -45.74747077358813, -71.96655538505983, 271.8969768854675, 11.31361002067451, 68.59621693922628, 21.679955732791065, -499.42826301961145, -151.04955986890792, 42.631012495426994], [-76.2995376439975, -25.098927859527265, 206.09467768028702, 227.7759162146303, -155.17383176267927, -269.08267350174015, -97.09547972366647, 28.849604331967974, -48.54286693946216, -7.902077416258326, 291.173674690392, -97.43194112827032, 6.1148722467088445, 58.08662942392096, 241.11281543277696, -29.22087472166682, 73.77490030107846, 131.90424637324597, -103.70223634199438, -52.5944039886469, -1045.8884845477824, -76.47943779109605, -68.4366199461071, -60.64498397063983, -4.876108690798041, -198.66884732058267, -180.30261997319332, -51.9751635490747, -0.41181849381825286, 2.541582878359022, -292.33953038777236, -75.26386868172857, -191.51325018556383, -265.561535926988, -121.02183303499552, 39.94058361081655, 51.355796655348016, 6.595812909347203, -405.51571872998665, -58.93602572690826, -6.881106977049059, -118.63506529268467, -598.8506697524948, 719.8523736782216, -13.008626551732878, -194.6339338607103, 265.5611721293627, -570.4507513594895, -163.54868195312648, -143.55111378906662], [8.597483936807542, -86.17717399631717, -55.86935229706423, -122.209417283015, 57.411956542676144, -39.83722076519711, -50.598722291754584, -85.56502834491509, 2.805783849318513, 3.28235730804305, -0.660542969270234, -67.61747545209327, -26.921857590598805, 52.2532168838776, 60.93019970221672, -78.15571485975991, 55.437201427610454, -151.28476537697705, 85.14629736103856, 38.349721859158436, 102.60225555811972, -102.45852519784833, 92.22967659516115, 124.77680099854467, -7.90227818965891, 43.363055899528135, 113.89595392011347, 10.947746000554673, 98.53783928658252, 67.13602226276555, 94.59913399054642, -9.434708173433767, 3.7042353406456554, -139.3648611272053, -55.364649027258444, 100.64679674627732, -212.905402953768, -37.704189428166835, 101.31114629404823, -50.85648846327881, 293.19945344892545, -44.757261783568794, -13.298987154815215, 257.86443831879745, 308.0856506970182, 91.38074043214122, 67.08880961173116, -47.741497352713296, 57.99044379810741, -48.22514091705899]]
[[-7.898934639800409, 7.559131853937612], [-3.0046362775466604, 3.043788910747], [12.836205207060832, -12.533320715245239], [-35.288024976344516, 35.40336422170698], [6.370034250169853, -6.181087752926279], [25.391457597802933, -25.394649820230512], [23.939017509048714, -24.065281339891676], [20.97020259920029, -20.81325619901171], [98.73945262291664, -98.90164266166157], [-109.60809380513157, 109.66814028850975], [-17.96744677366612, 17.852643303306294], [1.4918004038960904, -1.5175931105887122], [-43.18185337907836, 42.86335205709416], [12.592467219127998, -12.552730919572655], [-5.344677103721395, 5.523816357123599], [-10.836202198681091, 10.667144302224182], [-14.918230109073797, 14.718685376305126], [11.386817116085965, -11.354586033297133], [-18.955303745630722, 18.86310102388004], [8.440672992505851, -8.580452458083087], [38.63603818957996, -38.93263335676816], [-47.88663046838491, 48.09418566934279], [-3.5759737435474386, 3.549112424949813], [14.407630267896408, -14.314168481394935], [-65.30774937090132, 65.11316254670095], [8.560161459056584, -8.67390794060478], [-3.491261427691062, 3.7656616693873977], [-5.902211741843681, 6.005419827451441], [-28.851522214431462, 28.84679588066028], [-29.350060266980044, 29.154632059294414], [5.202321370037896, -5.226073173616825], [-35.69871238832471, 35.794391710117], [10.681027971725463, -10.73002776459275], [22.355102256479768, -22.365648671803676], [-7.4578598713749065, 7.6671332094012445], [-24.25475192216914, 24.193628568477884], [-36.260609475071604, 36.16766254367126], [-18.31018318746267, 18.03424663750801], [34.85980710875345, -34.90793767179586], [-2.349484333658653, 2.1320043812364267], [71.29092453702205, -71.03363510180765], [-6.420375291470203, 6.327017607874699], [2.44098071818793, -2.3609595091699873], [-36.4260935584609, 36.547872310329], [-110.53414337913648, 110.35484441350448], [21.98226605502942, -22.085654148452814], [-16.266393723023988, 16.319507127198744], [31.917781645276875, -32.14272912797938], [16.522356045353337, -16.65064026743971], [-7.328040192633889, 7.167494625362551]]
